solver_type L2R_L2LOSS_SVC_DUAL
nr_class 2
label 1 0
nr_feature 832
bias -1
w
0.028267600867990454
0.012155963771156400
0.015665360678674557
0.015364690017001425
0.014421020682872017
0.031079895864723595
0.020758132644330386
-0.005115701768304638
0.011261513765335223
0.006201505067010388
0.007230975848037646
0.005692311358490251
-0.018012619421272337
0.004897992137560532
0.002828391177621698
0.010761907300360765
0.002456516880206283
0.003661313267902656
0.021883163272742479
0.016392160860529394
0.025553279140308787
-0.009932399081463050
0.004394423372542848
0.008160731342475224
0.017953478922114234
0.017073144141286321
-0.015100189057558215
0.002503793373109610
-0.011330965651621198
0.004066922959589029
0.003888864005183667
0.025478285298658285
-0.001066026232801045
0.016614682119832993
0.003168033184689486
0.025871539871994330
0.012842898292397695
0.015410187245595452
0.000683534749878479
0.008551852198359369
0.005942364165871840
0.000256748143241862
-0.007818790691442954
-0.016772554813130038
0.014992919116685448
-0.023025039469662081
0.006484135263129044
0.005196943838389344
0.038490312742932395
0.009083520507064692
0.002049990196171581
0.009137912775964669
0.016255722720249714
-0.010531774135676287
0.006634166373719332
0.005461324472343776
-0.011980563575500508
0.000847797220269672
0.000935643248231266
0.010645147559521787
-0.016739436570769237
-0.001164275344748532
-0.001832272078662764
-0.000137608082125475
0.004660343781764771
0.001755597566576971
0.017953780123310455
0.010864876276931591
0.023446663585766341
0.008500043258454009
0.023255180693275847
-0.007650009447318958
0.019163006174612189
0.007173833886691507
-0.028215946517766381
-0.004566927841255171
-0.014745185453341907
0.015715533180933338
0.025565918975051810
0.000052077485394878
0.011465680962692517
0.020070446971553555
-0.018674884395822190
0.006428574081855909
0.005094267026650098
0.017068159073834209
0.003966232502303656
-0.001073343794996612
0.003751570760038769
0.023804184877872985
0.003491204326350239
0.004839453995011343
0.023175061207614717
0.009328597164511584
-0.001817597558862659
0.001019074591306341
0.002510036064271011
0.014733678288822832
0.018705141071369065
0.006821463284804545
-0.003156874247358984
-0.000994269543771918
0.018938735251058363
0.013059474832466989
-0.005415643264305086
0.023867130294461050
0.015591059593953582
0.010752316985725870
0.016122471919588644
-0.015870348552226209
0.002112884159231441
0.014254637417899865
0.007688238054867589
-0.007391709540299592
0.000483730852995563
-0.007818402285734506
0.013104461169472037
0.010476584706435359
0.017682966316477158
0.030387928840256810
-0.000021294659031751
-0.007852781105804195
0.011194269926545380
-0.019846161754368399
-0.012029520966827641
-0.003965865255114821
0.018270999716196442
-0.007645552590183376
-0.001860149706583116
0.001055093341612750
-0.001137643687672406
-0.005845053176257186
0.003003012988641461
0.004012176565507120
-0.005961882120785785
0.004296228025559664
0.004978619199927984
-0.008822533488518726
0.000058942207219670
0.002970719057303309
0.005173506619178223
0.004839170421967482
0.004212047933665576
-0.005379899951935606
0.001435517957711060
0.002785147445124907
-0.008581141381748607
0.003865736413708138
-0.009970822163384994
-0.000228968768322023
0.007840003279547774
-0.003708269968602049
-0.007461810243805768
-0.002348260761313157
-0.007166982000801356
0.004045059011651655
0.001967274108993329
-0.006572712817603647
0.000910681819421439
-0.001586219518329290
0.002443769488905606
0.006378096376827502
-0.004248662050788367
0.011378210151738063
-0.000616376380556466
0.004419554817497146
0.006044889293927483
0.009086278485064350
-0.002833900740284652
-0.002034552770629689
-0.010177891501659229
0.005774108742625931
-0.000165650828585825
-0.009141306004186304
-0.012896876460876547
0.003784472592552275
0.004988559175895034
-0.008239788626076218
0.003546099122954359
-0.009055975206943770
0.005087699673294048
0.000362084972857956
0.002553413995452883
0.002992991818548279
-0.001302194651000157
-0.011174523430621213
-0.002530532897538116
-0.004013691174850200
0.013884582370458897
0.010427453266732816
-0.004777805769140871
-0.002238528865960432
-0.011025359832827448
0.001201185586536678
0.010884927247862426
0.002297993412067078
0.010383951431861257
-0.000909335329430813
-0.000961535954654891
0.000083525506958291
0.009763970945511262
0.004632794409139841
-0.003442964970175223
-0.003183133516120539
-0.008257798445518182
-0.003122621436697538
-0.005394768407071435
-0.003098906236805810
0.001793955823063278
0.002922350731369975
0.002083716303671654
-0.002403934901919634
-0.006964348996552102
0.009781763125993647
-0.005305051195907904
0.005301604474022782
0.006259434492667975
-0.007840719490964371
-0.013543956818121953
-0.000558120410539552
-0.008202947013564593
0.004160417797186716
-0.001928434599897332
0.002841768659216538
-0.005512092969900028
-0.003103703650293472
0.003216232964874066
-0.007913626087242484
-0.001182821609967131
0.013816432836057532
0.006823586463648790
0.001249913948669500
-0.002846975832955605
0.004394408613744979
-0.000174780613673467
-0.009981112186009880
0.002571206605828173
-0.001163862211936352
0.001286999420803305
-0.002708019118367689
-0.001843927771506371
-0.006662776637007046
-0.018234969764806198
-0.004226759851832708
-0.007549236470876729
0.003960100609096120
0.001997407419544940
-0.006815643860613586
0.010537810724225294
-0.001413477415434671
-0.006348775705579509
0.003949882456301766
0.007283108656981359
-0.000620575829382296
-0.006800430024768067
0.000501624448082794
-0.002178983934570097
-0.000016923906929574
-0.001811636844269874
-0.006742009103964096
0.002249011862119622
0.003454004241606819
-0.006834789268130536
0.003904310254270556
0.004371386297159245
-0.009204320129565020
-0.000722437753476852
0.002161880861808171
0.004804717893758137
0.004257305409510732
0.003831902521682503
-0.006275218454455295
0.001108929482289568
0.002516124774280737
-0.009280344075044043
0.003598098023415477
-0.010873029297379655
-0.000525022364183290
0.007261853321088699
-0.004127299293039566
-0.007918944911060870
-0.003011440690705426
-0.007616318762786400
0.003786930486202780
0.001593865253463308
-0.007392785752612240
0.000108196220836582
-0.001852896068037083
0.001761207319582107
0.006077624005992151
-0.004741599313961737
0.010763548345310979
-0.000926996972041212
0.003575174224821070
0.005458692589709008
0.007914238234757428
-0.003666235914805427
-0.002432599455627955
-0.010946896190730044
0.005259936483520590
-0.000531933152689484
-0.009425481485056854
-0.013653649867592103
0.002874382132314510
0.004329054649833014
-0.008853561231085286
0.003019818763801649
-0.009471039032562006
0.004819322667327905
-0.000088340164575473
0.001521485615426290
0.002540672526825538
-0.001723100795197931
-0.011774441140505718
-0.002816064569449931
-0.004233919907328770
0.013163398871394715
0.009809167521419936
-0.005684209132496263
-0.002580194566306778
-0.011830869400797788
0.000816168840973934
0.010074130620141591
0.001335846571906602
0.009788420281044569
-0.001450388127593914
-0.001334282346611622
-0.000281209608600690
0.009212070787543485
0.004347097120808322
-0.003891040689042429
-0.003845256228255547
-0.008846288920260023
-0.003455039654325795
-0.005860819934458652
-0.003826306411774312
0.001449617071633530
0.002210936150750925
0.001845088054814424
-0.003205103914064395
-0.007312299251035923
0.009445688614757633
-0.005634408776558154
0.004825578216493009
0.005571343209098870
-0.008732903099665712
-0.014100204162101500
-0.000939572079912792
-0.008976236699005977
0.003900525768208290
-0.002903289240766890
0.002473153354622331
-0.006043467674533765
-0.003436495069360760
0.002510000379157306
-0.008572230859975882
-0.001744604070602894
0.013305982178008283
0.006401020696258051
0.001010187795821123
-0.003184336243812577
0.003830661087037886
-0.000822271407857614
-0.010419662440891014
0.002045252630389821
-0.001470595091004425
0.001089004010963141
-0.003369639824139644
-0.002377410127639098
-0.007249369245826378
-0.018738976509696567
-0.004808334156917182
-0.007946421726888669
0.003195980949406546
0.001441601182364336
-0.007616148648205472
0.009889756207822014
-0.002388128645756204
-0.007050694758609524
0.003578149915634312
0.007007567779459477
-0.001434340369865411
-0.007358802776657072
0.000128702166345313
0.005164518363172139
0.006627002788781105
0.004069076388518308
0.009434772080453922
0.007561089431775239
0.003843067936576210
-0.008452054385594283
0.002300323239519530
0.006107790610582947
-0.000742729791306258
0.011105194307833577
0.026047474042511620
0.000695542479239031
-0.014173241598097977
-0.006287012312304171
0.013270626871713882
0.005155760243509785
0.002359111368406852
0.002550804224497383
0.007961424857926939
0.004863623860465172
-0.002217967899718383
-0.004832921629909614
0.004821322193189750
0.006879229625115221
-0.001861942742749574
-0.019777609294903530
0.011309040823796567
0.012400554227542568
0.025822416045743528
0.004463622561180448
0.000265764300481643
0.001002539536316339
-0.000231209380467819
-0.005827870687184825
0.004387780473160868
0.009551816264030701
-0.005486594017438536
0.000333545387782874
-0.003116998940006640
-0.000359923819698949
0.017416151593780394
0.010549820969067996
0.001412341123155400
-0.000854216913686714
0.002085381469862612
0.008888847691251428
-0.016049931772942196
0.009718666381175049
0.015023893699899414
0.009090492905630099
0.000061194955214658
0.004369820214285019
-0.002247036966080889
0.016300126578522152
-0.007162211307540711
-0.000073246419416565
-0.012654718944100135
-0.006228283584317422
-0.000234913272675751
0.006688785311904132
-0.012701616110710141
0.004090284517860123
0.016215054745735907
0.000435089714463151
-0.004384711410698997
0.001636204541547397
-0.000182750303691211
-0.003068155591759234
0.001209932004352838
-0.005722087514594049
-0.013563819740178768
-0.000478441225228115
0.000334011339121598
-0.007209722272818873
-0.008732115838687207
-0.010943987044039606
-0.012799806252073059
-0.011465088137209674
0.004299078740631007
-0.020788929257624340
-0.006987288535017671
0.002430391923081728
-0.018687706325091213
-0.011692415352179459
-0.013155525068750066
0.001406657006927010
-0.013413713707937591
-0.003306875359746523
0.008575775432976046
-0.011408405357408669
-0.007950233421049705
0.010349215078000329
-0.015568041367649089
-0.014365977594945317
0.001638035708887164
-0.012588234540544460
0.004164792985948696
-0.015839399475119961
-0.010635275771780313
-0.025124835435900369
-0.002456681565750789
0.004594524869730998
-0.004441893946361534
0.000330642096374721
-0.002930615594316077
0.016572675535515422
-0.004349799684642759
-0.014320599645301765
0.008940515361366650
0.020237264180722293
-0.018592677266405112
-0.011770881158560792
-0.018952461172708754
-0.014272030413533544
-0.003999598281569614
-0.018948131083542510
-0.020425667339345751
-0.000950691751822675
-0.002881340348158395
-0.001130375336538553
-0.017257598348675678
0.010256809171756170
0.014910667510448403
-0.007136108385052835
0.001316329376866768
0.003038323348310130
-0.016377431606459679
-0.018880655759555980
-0.015672084933222762
0.003568429681561371
-0.000693540841810975
-0.000783973930068114
0.005521133617618969
-0.007702146333146060
0.000759163431188273
0.003677193914523228
-0.009751013322038331
-0.000004610901381364
0.007420742149523614
0.003116053688892966
-0.012965196815705161
0.029517272149941556
0.003090513361272590
0.018643452858258493
0.002415562733550694
-0.019151113239467651
-0.008095353077160163
-0.000801688928745772
-0.010404559669708924
-0.002146316230387384
-0.003687843926902667
0.000657855562485256
-0.005624500654026701
0.004573766696746380
-0.009456532405939484
-0.013699321398493369
-0.000198650407221532
0.005242182664682133
-0.015516161767934614
-0.011282070377898502
0.008230520787557252
-0.012025159134421939
-0.011940448784911484
-0.002037946856803961
0.008936349166611512
0.024663624724255501
-0.013306931329742977
0.001230082327919441
0.009441360989735201
-0.020147464313926586
0.000020130181035884
0.001460587784215789
-0.001437582295105768
0.004317183850854607
-0.021850391850151481
-0.011825570497120489
-0.015310057290473267
-0.009494272818852187
0.004823259560755921
-0.019262001426507112
-0.010931323355676460
0.015232724676984562
0.008315348596843025
-0.002369922134349253
-0.002281963872652732
0.008479724009210337
-0.012021737939419007
0.001231519232026753
-0.005753745978746688
0.005819007844943839
0.018026153039865826
-0.016384096395485295
0.017492823296132907
0.000720886783800827
-0.009974815870290185
-0.013037722730500610
0.007309003144327178
-0.004186246989349621
-0.014533982810965809
-0.020902566020748192
0.001417343452383572
-0.008876475086212218
-0.005930253567739289
-0.004551679676757290
-0.001013741870292388
-0.009597532331082083
0.009306132786003252
-0.020415135283716600
-0.005893942793137721
-0.003693001423068416
-0.011544773250089065
-0.028622207118356304
0.002248116720634133
-0.003005259911108420
-0.021031138846443410
-0.020385645876469894
-0.019703094562100815
-0.001525552709671712
-0.001002176922437203
0.008000372926892662
0.001291441842706000
-0.003901367837062108
0.004955942699182287
-0.001539219149442095
-0.007563027415194456
-0.010108641093251372
-0.023424125556589476
-0.016956914912917363
-0.006001487954327383
-0.000210209430390606
-0.005794527586495983
-0.008304492544697090
0.004842111888149618
-0.008106666727421699
-0.006906866309271613
-0.001779263373042057
-0.016719746065601646
-0.003943317676471807
-0.013977832613937589
0.003733318754680645
0.000442573948261616
-0.022867997566188656
0.000190353887730043
-0.005321772395047291
-0.002042000197780979
-0.012599131519327461
-0.006437422662064326
-0.001755674374506200
0.019533939421017391
-0.000126886309825032
-0.017865650703473783
-0.015920840293178137
-0.013833732478133600
0.009677535955778948
-0.004939629712818995
-0.000444081633634413
-0.012190904220493844
-0.015283008029217802
-0.012620409349268363
0.008995851557783719
-0.013282366753352525
0.003697504487218888
-0.010714074946004806
0.011215319830740623
-0.000640950706178072
-0.015036585591957134
-0.008811575823939240
-0.001064249741621109
0.000394355914256169
0.013069063709524634
0.000925365289717656
-0.001877198932236507
-0.015231964180251469
-0.004357666039407092
-0.005435019661033189
-0.009759710087186676
0.010954518040637812
0.002429955048343353
-0.002834518782715803
-0.022781213650845622
-0.003198830970886180
-0.023058742444054627
-0.008906106941269596
0.006234369340739668
0.005043880948642758
-0.014459145113104812
0.000627029741936914
-0.019861682823595871
-0.003969401470884950
-0.010797844339711397
-0.020745659975955705
-0.000332561904328361
0.002557967457614281
-0.019415049093432665
-0.013524026974377200
-0.004905225136270669
-0.008483036359758995
0.002064478824178074
-0.001405644029166212
-0.002854319752983627
-0.010189368531781578
0.006188333780742140
-0.010405103649013668
-0.008102029674799144
-0.006803820711113880
-0.021032698975044280
-0.016132812483665045
-0.021253940401492442
-0.010433771107182655
-0.002366926657522204
-0.020918536139207220
-0.018807648971557931
-0.019014275040807049
-0.000326520672775424
0.012006820214908964
-0.015391376733571433
-0.007461384077665772
-0.020646039312110783
-0.008251928752496985
-0.019835199824239921
0.009560602526434677
-0.014912280521667874
-0.003636591269764615
0.011617764921730016
0.004092944641890220
0.014638473833714650
0.014273741140360533
-0.016857809746363594
-0.021452406789738022
0.003420084384857467
-0.013808402516237070
-0.001347635040967628
0.006990585923842283
-0.016614270012248473
-0.019514706851867476
-0.004477370479819202
-0.008191513818110476
0.014299877937421802
0.011555386773549508
0.009457014907274838
0.000397933915239087
-0.014528538713477084
0.008873327018838931
0.002157134027059076
-0.015638166934175576
-0.006851064037002664
-0.005962778338366717
-0.003518659926017605
-0.026017884599483922
0.006352471130082333
0.013431741072692249
-0.002453724888129121
0.000440971590961983
-0.010365627707014272
0.017949338882616843
-0.016585475682301017
0.006970795621561575
-0.020828181720681922
-0.015262346693966540
0.025053743400684187
-0.009700271171325157
-0.008344553397904523
-0.000392494124220702
0.011681294706533656
0.019132013908852490
-0.027792125508306207
-0.010854354222192263
0.002392897926654105
0.021249225398253659
0.005448981760246779
-0.000870474326818447
-0.006537741134815338
0.006335566063346796
0.017478444776159945
0.005074259578472267
-0.003254322703600701
-0.020007778553704267
0.006006650849002064
0.000250001315866533
0.024359452673565953
-0.000238740874814576
0.024497073681579971
0.009835077252640349
0.007771528385452755
0.011038018398166129
0.013958315619369235
-0.000114284956629276
0.001235127842453534
-0.010343175177075836
0.001009049931729756
-0.002372279492799699
0.000088824756308134
-0.003206748853806870
-0.004916575731210092
-0.011879137536174452
0.005280872603163021
-0.008610783950937177
-0.019475547894371784
-0.005649335430331692
0.012426704520811762
-0.001176438936524355
0.015847960284358385
0.012915678420589809
-0.018566075359278188
-0.017646220227744178
0.015328238956176354
-0.007223536382181388
-0.012326550523803988
-0.001115348600888020
0.000026711501806062
-0.006073384975862139
0.001664594377367291
-0.011418851712957690
-0.008616538559301966
0.008173066035516258
0.006097060150834665
0.002333193940131685
-0.009026119431008919
0.005188533343626471
0.007850763139645623
0.012765811686809552
-0.011268307502972672
-0.004065631750534537
-0.007351538305854251
-0.001731786086036907
0.013050681256046050
0.001762093532177134
-0.012306910846256529
-0.016098138707657736
-0.006047409363264705
-0.000109743864673409
0.024222143846034744
0.011684984396434232
0.001022375506110807
0.014484307439155590
0.003380677644322266
0.010763264917648351
-0.009701186719389319
0.007779525432284453
0.017405356480615097
0.008200126730576953
0.020291701753719783
0.000039458130683916
-0.001824764879182791
-0.002931688030890342
0.000938433680154787
-0.006138471153251844
