solver_type L2R_L2LOSS_SVC_DUAL
nr_class 2
label 1 0
nr_feature 833
bias -1
w
-0.344071907726063664
0.018308599328871054
0.006835713453086400
0.006034809624409181
0.008290757984427743
0.006923872088220460
0.024171478921997950
0.013873470587614848
-0.009435398962437317
0.011671702792044669
0.002015422547410245
0.002476289927076420
0.001742711333307655
-0.012231360519562770
0.004329059369878257
0.001267935230955568
0.006617481031682399
-0.003874683106466335
0.003274735592598642
0.010623927945565522
0.014984247203791844
0.019399895000031423
-0.004631782083308167
-0.001679790039459832
0.003930443307420375
0.008576702244254664
0.013109198454764557
-0.011867927223016106
-0.003776812369985980
-0.012541699072621542
-0.001451355799733907
0.001628704008167207
0.017838585094059070
0.000973079552794100
0.012827723399444255
0.002265198522666164
0.018049338603399329
0.009160069523412787
0.012918347421348083
-0.002180360814550009
0.003044651860835615
0.004823883238486478
0.002381484866946992
-0.014455838257915949
-0.013927591361892842
0.008852317400968552
-0.022963731115468095
-0.000919335465249632
0.005500941357054099
0.032870264017666830
0.003855443748452898
-0.002488028643368799
0.009216669182837364
0.007272583637864778
-0.009426838045577608
-0.000334881558333878
0.001121159353449132
-0.007842471353793016
-0.003679039947560993
0.006966883938708980
0.006242888532655010
-0.011115555895324395
-0.002959678693083501
-0.004905268061698613
-0.002040556353208471
0.004233373065964985
-0.000230041602724816
0.012522532273516188
0.007817695365479889
0.016264801340877575
0.002006270422793911
0.011279417806075547
-0.006396481568064010
0.009988936230281867
0.004831288810614118
-0.021152990122135854
-0.005403519226279841
-0.014448737810426434
0.007498540270199621
0.012393380215737894
0.001966783512495228
0.010368568175953967
0.013589185562116813
-0.012601118190563249
-0.001018891026541676
0.000597814359563006
0.010268038443745091
-0.005271944353272502
-0.001669907209450615
-0.002429926395740200
0.013727949587482325
-0.000077946686793863
-0.004238529571893312
0.017716812269475621
-0.000712552859771041
0.001783886430069620
0.006578998000888779
0.004790300635220493
0.006253612659493787
0.010698593233589416
0.004258730411103605
-0.008733284412664664
-0.003135380659118316
0.011118691154009309
0.010103185633752742
-0.008120716454734864
0.014327040786220071
0.011754286295719016
0.006159585235226172
0.012821673639826758
-0.012684299597341105
-0.001356095857482437
0.012226619111554135
0.007001324316694312
-0.009394836585416682
-0.003236038634303877
-0.002676409832863863
0.005047934144054159
0.009728015889336767
0.014173078068547916
0.019495987103219557
-0.004490257093592943
-0.007555326954470936
0.004686278184387211
-0.010541674552537040
-0.010387207850283154
-0.006501898397573182
0.012445996635896892
-0.006440425862649026
-0.000878392104036754
-0.000802247081369894
-0.003191932741390742
-0.004929899366952812
0.001270595144828491
0.002948093106498677
-0.005723277997838250
0.003968534788688135
0.001738296734414062
-0.005399087800203356
0.001744612543866788
0.002736006982600397
0.006546485271771773
0.007332595181805417
0.003901386274975489
-0.002345100167279091
0.003281025611876907
0.002639423982551415
-0.007513846785267450
0.003577019841937474
-0.009257370965602313
0.000994318257216920
0.009121095193957231
-0.003891000585324218
-0.009200051593699276
0.000913402861099796
-0.006149393511395635
0.005084411836411692
0.001193118208105131
-0.005441424031845522
0.002504117084527924
-0.002360201729628326
0.002675536179062217
0.004935007884441330
-0.003248820440181417
0.009336394951734684
-0.000958300798614778
-0.000468818344045620
0.005539734682201479
0.007026281296969445
-0.003318234583890839
-0.003397989064402831
-0.008100862497145740
0.003638071308012663
-0.000040642415795009
-0.008263694793854985
-0.009695339574740121
0.004895137104168342
0.002935190538562917
-0.009112122092111187
0.000301031588445975
-0.004923260279272375
0.004357122631413727
0.000756822376803349
0.003999716201637058
0.000565708556672363
-0.001268812721817081
-0.008431582192550122
-0.001567839425923333
-0.003984406844528269
0.012268729294673828
0.008416259552139045
-0.007358465940243819
-0.002656302037649760
-0.012112763622697356
0.002088703135745796
0.008477339479657503
0.002093145892911520
0.004949562921102675
-0.000630920616498776
0.000763881382848457
-0.000536978240647869
0.008662360127670486
0.004357617673497309
-0.003436611837847099
-0.003569045904042347
-0.007737784368526505
-0.001596583099545536
-0.005466367534863691
-0.003294282024159531
0.001228245927126696
0.003212710598648769
0.000934432523523189
-0.000608973144464416
-0.006058445332074868
0.008896677135248244
-0.003531594395850066
0.003620575838534811
0.006417402870354165
-0.007677830304012512
-0.012258026558663107
-0.000119373977499421
-0.007675059496084577
0.004500854258197457
-0.002413754785916464
0.001466171561586741
-0.001549300535715836
-0.003137608231106626
0.000328852990524635
-0.006262934752894132
0.000252523558610920
0.010548940885982279
0.003306074774407547
0.001185893459183944
-0.001070095827132084
0.003363997471098199
0.001832947053414154
-0.008181764742418527
0.003222504467008298
-0.003825509923762147
0.000585610559159755
-0.001345496979261550
-0.001764843124359944
-0.004564046542698054
-0.014956789611678427
-0.001483172716354993
-0.007451934456237602
0.004120228781151015
0.001535974370230386
-0.006698173832925293
0.010682887663574513
-0.002322829978965510
-0.002995988169480408
0.005257561496699143
0.004528803088899268
-0.002904005935229762
-0.009050368005766869
0.001648720542656773
-0.001095713251582800
-0.001531558133555963
-0.003641334183861276
-0.005531407678361169
0.000762960403748075
0.002570109717398357
-0.006325456358269886
0.003699910182946550
0.001321529401522735
-0.005660032260476189
0.001208845115859536
0.002185547429412974
0.006288047562540319
0.006932111522669597
0.003646353944051957
-0.002958961224230766
0.003053549333373482
0.002458006858945489
-0.007993561904227169
0.003397017587991177
-0.009881079508087063
0.000792062059430397
0.008726114329703123
-0.004177740639012234
-0.009500701014689854
0.000464814404921120
-0.006456804476286096
0.004907012277684026
0.000939839656035064
-0.005999375114023723
0.001962027734407177
-0.002539006021900989
0.002217831839266375
0.004732496307890142
-0.003582658041274979
0.008924134972015066
-0.001168069042005287
-0.001039899608104398
0.005137240053718531
0.006227105982846864
-0.003886512709222726
-0.003662646354275711
-0.008624811483123090
0.003288347111037041
-0.000289283924092939
-0.008454261711328351
-0.010211742533689788
0.004281914799771650
0.002489220094894986
-0.009533872353230392
-0.000065665424244321
-0.005208837670874903
0.004173179339312048
0.000452487512706748
0.003293142164639192
0.000254877337712927
-0.001553588483427949
-0.008835327200499087
-0.001761988148212403
-0.004135133060286758
0.011772778280228640
0.007991169572837863
-0.007937058782808870
-0.002890678913836168
-0.012678722254694708
0.001823919093072587
0.007922117521144658
0.001439475065152853
0.004548048995547105
-0.000998436789896634
0.000513844937507343
-0.000786238555488008
0.008289430645281138
0.004165052507811490
-0.003737213919956104
-0.004022260960569916
-0.008134961811139098
-0.001821176321305792
-0.005781857401445520
-0.003791200569106962
0.000994416310612569
0.002730871061516962
0.000771902138351026
-0.001153211727326000
-0.006291157100771821
0.008673809030964194
-0.003755152965817284
0.003297334686322610
0.005952822706237911
-0.008272960743831111
-0.012649455502732731
-0.000377765422840797
-0.008206544086855968
0.004321193841214242
-0.003070996254401566
0.001214818607828672
-0.001917697356039386
-0.003365144021438404
-0.000142671090013476
-0.006708288884221367
-0.000130721823717837
0.010204999775731770
0.003014843117546622
0.001022718355674766
-0.001297348559108606
0.002980086893335085
0.001396306717242009
-0.008475405747009368
0.002866281929206095
-0.004027085094468811
0.000451485828514599
-0.001792734065588857
-0.002126604003624719
-0.004962411854813372
-0.015286933371368466
-0.001885305721510514
-0.007726428016233516
0.003596431562789108
0.001157802158920904
-0.007233916946285599
0.010245848940764812
-0.002976480369206771
-0.003476673529363763
0.005011009240035941
0.004340897163457422
-0.003454509853298655
-0.009443280412596775
0.001391419329990177
0.005897413465734172
0.006553955013430576
0.007068453546735795
0.007550156464282421
0.004335813638894196
0.004402977674003178
-0.008571002776408597
-0.000231233796240732
0.005609598590568958
-0.000495674977143585
0.011767704192876680
0.023864080239403989
0.003574253455643467
-0.013219459138522342
-0.005460210688745033
0.008107442598218703
0.007043859887853360
-0.000021798096878796
0.000937880856689831
0.003958032207826671
0.008761015823012704
-0.001822865553730860
-0.003827016276254720
0.006225587425033500
-0.000065013821991377
-0.002608381187432745
-0.017242457967943714
0.011911906641090771
0.011577744028067213
0.023026374806328482
0.002164037294411073
0.003237839018036477
0.000063242095927105
-0.001758379846881097
-0.004561073964931204
0.007321823610169162
0.008839137702466346
-0.004625238409012074
0.001673558237711329
-0.001268899207043111
0.000214259828470698
0.013245216025389788
0.006548113790494931
0.000621807707707725
0.001905683942215473
0.002479914338948143
0.011327073375159671
-0.010801411897004469
0.012579253707501615
0.013198189949484370
0.007349612491129356
0.002099920130050182
0.000195618996123125
0.001402412900096991
0.013738692401851799
-0.007970448914926145
0.002028481402592608
-0.012484628727956163
-0.004911506007362175
0.001738408108680754
0.001573888689936948
-0.010207344081961752
0.004341543599991497
0.015334054951441127
0.002169876553428324
-0.000639706799779921
-0.002117755724568645
-0.001093061338645201
-0.000405103938662874
0.004398373772129577
-0.008267759295455956
-0.005270615025148393
0.001723829643972261
0.003105510863879703
-0.007216262148900237
-0.003655407691427808
-0.010148796160035457
-0.006616974342499852
-0.010914397954771025
0.004754079229232280
-0.015071124950236636
-0.001397097770286486
-0.000969220628857195
-0.013952058819772196
-0.008584202532656711
-0.007059665837346659
0.000270503698596783
-0.007427937126267902
-0.001091482921040894
0.007270174577337965
-0.007433897399576422
-0.002318351647427217
0.010278341105261138
-0.016325753763749163
-0.010081811769317606
0.002849297668766163
-0.013780503702211934
0.004599829878121737
-0.012647595001780051
-0.009082833636254988
-0.016677879216178425
0.002516937548605578
0.008766464432430664
-0.003587953165515955
0.001745475470576577
-0.002038648208495143
0.015180680972693841
-0.002800173363835139
-0.007944210937336329
0.009542192746444481
0.018597401443047726
-0.010773629445216384
-0.006919205878997602
-0.009215552633489988
-0.008587614683179152
0.001128912542254486
-0.009332831105535200
-0.014532534182630051
0.002714522054907418
-0.006644048673979718
-0.001425352833587039
-0.015368939284128306
0.010499251222858922
0.017589292498937179
-0.003007403871368705
0.002172714926537464
0.007727876683852221
-0.012575356904185415
-0.015944096007858070
-0.008761097739900581
0.005744486385252566
-0.000926792136134418
-0.002506296732464836
0.008278959045445212
-0.000754427574217001
0.001877185774370526
0.004273083578464627
-0.004427079319416634
0.001200473305910320
0.006019947118890595
0.001661270847652451
-0.006847655626819101
0.025190351858882215
0.001399654723766050
0.017279047366387933
0.001649717871629701
-0.020499336237203805
-0.002588554533279962
-0.001577481302568863
-0.009096111632109992
-0.005188641206686204
-0.003187500008957833
0.001338805564306196
-0.004643862617483939
0.010999185192587402
-0.008487663108527497
-0.013655591344759273
-0.002465573403984897
0.006815884367798170
-0.009983069188650556
-0.007002840157122880
0.006776394941581288
-0.011762147700016023
-0.010579769322086407
0.000865103275116856
0.007133042641918674
0.023175216365048393
-0.011159540999385494
0.003533204592913565
0.005980591515647601
-0.018392640630859190
0.001908950741486610
0.006500740723932072
0.000830020511173742
0.004579267913842891
-0.018687238971897693
-0.011307016356657547
-0.008984174149979963
-0.004947739616912687
0.006984000386836973
-0.016775680055091762
-0.005066947564068025
0.012698806226480270
0.011162803099506532
0.004676635087244314
0.000980622315075325
0.006983961967871119
-0.004734960674158526
0.001961278495013233
-0.001670758167150987
0.007026834329757546
0.019028705470885331
-0.014166871426030934
0.013977550556545959
0.002886363812541495
-0.007788716280996386
-0.010923287967122814
0.010829076603114765
0.000642999891764947
-0.012185588834055161
-0.015413645709835140
-0.001133418490479783
-0.007943364934914507
-0.000827233002309341
-0.000251879723479714
0.002191947255816392
-0.006590697712277212
0.013149608158613813
-0.014733007910244357
-0.007127847311102994
-0.003130570469436958
-0.007865490822156594
-0.024879794588346469
0.002399493778361080
-0.005171034426597131
-0.016339539573601063
-0.013157152266160307
-0.016206138426991392
0.002474565370218220
0.000121332201335640
0.008075613168837379
0.007058545620418042
0.000208108511623495
0.002567138011862377
-0.000428314759145486
-0.007705645285717564
-0.010870533632269117
-0.019095272439053453
-0.017320638284357731
-0.000779974727140022
-0.000962219961486254
-0.004091134914582155
-0.009188610133358078
0.007247313975663671
-0.002853446979158734
-0.006888825047395373
-0.003446233043756720
-0.010961646671857801
0.000107939131181655
-0.006418367557694349
0.006963919657940584
0.006091270182006714
-0.016277845994560721
-0.000030481036105930
-0.005566377846543909
0.000367588172466986
-0.005310654640121605
-0.000588595113087890
-0.003716763987209246
0.019501109846660543
0.006042318598837815
-0.010160848814146974
-0.005302734991632719
-0.009612293971704274
0.010255994126642864
-0.005850861839265462
0.000163519200792969
-0.010428385963503367
-0.010012592952271847
-0.007914288320867666
0.010517158311449134
-0.008617438041895591
0.005261856456881605
-0.007296142795968919
0.008807352705119993
0.002635323831979938
-0.011857007213128750
-0.003571785468551004
-0.000864804963338944
-0.001868538902609953
0.011400707150695338
0.007277888027557538
0.003102680722955600
-0.006526821716703988
-0.001588554615429929
-0.002322447614879156
-0.009800350973553638
0.012117159723838420
0.008202081414457111
0.000595923644800754
-0.018382633650396624
-0.000272168522851819
-0.015062607613846040
-0.006195865918003317
0.003337936453174241
0.004211741768490656
-0.008729962871501766
0.002547657065951581
-0.012175310581587098
-0.005627763986793666
-0.004607891609179457
-0.016297415433409953
0.001399269314609581
0.005377103184262739
-0.014356573254407954
-0.006242261923635892
-0.004427986902626800
-0.000722512352988685
0.001659359216300530
-0.002515428711511199
-0.000490331399980484
-0.009025491290990324
0.007542849233987547
-0.004008421136442737
-0.005510531196372191
-0.007395029138238465
-0.012769465927444166
-0.011625421918050376
-0.018460187652895362
-0.000534185746423046
-0.000261999211367418
-0.016290075744331486
-0.012690238214441572
-0.012119061503920244
-0.003113252919758751
0.011734965516389705
-0.008813614167423989
-0.006934043130570448
-0.016772902115304873
-0.004535114131031783
-0.016503026528031740
0.008769936526436593
-0.012420136497100711
-0.002483023046367296
0.007018242945062076
0.005413307583448552
0.014511560027130511
0.010123289609100297
-0.014883557721548379
-0.022010094556300694
0.004236154000968021
-0.010372931048453196
-0.001657238219615668
0.007951036196664634
-0.017553358892508350
-0.014781268881263786
-0.007155402199022011
-0.007273521545636942
0.011363234945110058
0.008584627366262382
0.009784793380946760
-0.000055299060189737
-0.010026284173710476
0.011206387669148821
-0.000635703041593012
-0.013384766734660393
-0.004510384419361473
-0.005047644479513272
-0.000923670383961464
-0.022093434092832924
0.006346659726481005
0.011188300394956345
-0.001927931149362358
0.003190805083815672
-0.008920633804973344
0.014747608408088028
-0.015360116628625145
0.004902800469220257
-0.016233951156657139
-0.012632352601078568
0.018343309313366606
-0.008086856198477214
-0.003013673664810020
-0.001437790936783723
0.017443142437645942
0.016522025035077728
-0.021119884868416886
-0.008894724508530662
0.002858057303566141
0.020739080015208831
0.003423786746415232
0.002922673379104219
-0.006499278759043819
0.003599080851497365
0.017155758230371066
0.004715750135351682
-0.002590361989382276
-0.014210600792512924
0.003266213412549594
0.000433440527736220
0.019861912061664017
-0.002033055141015104
0.022090925926892775
0.009675398191585551
0.005477887765959900
0.011333491685917272
0.007294288340703787
0.001855691769769665
0.004509879762967729
-0.014142327779487415
0.001185718862549315
-0.001435970332008111
0.002302476973854258
-0.001962432459014296
-0.004349879005097168
-0.014050268688813424
0.003725698553623667
-0.008555443095884003
-0.011731815803054086
-0.001393974947358764
0.013181520122250890
0.001509086442124310
0.013958343985007031
0.010439023041743399
-0.011568277358979933
-0.014566160572497778
0.010741870128894755
-0.007673042732896101
-0.009644452339622415
-0.002677102679246823
-0.000984035679053471
-0.004903506409394642
-0.002788416387081382
-0.009334270685877387
-0.006246281054954504
0.008739116027149014
0.004006998061562385
0.003449445756550164
-0.006383225989308247
0.006649415660783078
0.005929593589824857
0.012667412896668435
-0.011301812380301098
-0.003338190874752904
-0.010641657340197484
-0.002813148899497149
0.011950715721893450
0.003627903772153607
-0.012828002822743325
-0.014141006549192500
-0.004503977862461961
-0.001710680114421330
0.020202920795852800
0.011217762169118141
0.006710668748094279
0.015032918163241163
0.000973921356126834
0.010650385867022542
-0.009087689936086262
0.006598717925132848
0.014698653616560416
0.009253305425983828
0.019602724897227239
-0.002284818761856764
-0.003684675947261696
-0.002264212489342142
-0.004060912304504723
-0.008611703349260673
